float hidden_weights0[3][8]=
{{-3.84956918656826, 0.10099666798487306, -0.26281410176306963, -1.103420589119196, -4.610216394066811, -5.943972408771515, 4.866241738200188, -1.3819764107465744},{-0.0033874125801958144, 2.931508183479309, 5.079740032553673, -0.33691348135471344, -5.275746792554855, -2.565868243575096, 4.172136649489403, -1.4251078739762306},{-8.3496812582016, 8.898481786251068, -1.2333372496068478, 6.986190855503082, -10.993932366371155, -8.0346859395504, 7.457759141921997, -1.6926671415567398}
};
float hidden_weights1[3][8] =
{{-4.535074800252914, 2.4278768822550774, 3.834023416042328, 0.6179178971797228, -0.5067280009388924, -3.793211504817009, -0.2932571657001972, -1.5097806751728058},{-0.241254648193717, -2.9105860590934753, 3.6026095747947693, -1.7204205617308617, -4.876620814204216, -2.557615488767624, 0.9422987177968025, 0.3087730910629034},{2.8951516896486282, 5.526160150766373, -1.9037997275590897, 1.3021478354930878, 5.0027944296598434, 7.306441426277161, -0.007503096159780398, -3.25497530400753}
};
float hidden_weights2[3][8] =
{{-0.42635701037943363, -2.34987985342741, 2.2929700165987015, -1.1890034526586533, 2.5724257305264473, 4.73761448264122, -1.0739358365535736, -0.08009000890888274},{1.007728859782219, 1.668719194829464, 2.541242815554142, 3.205123007297516, 2.2805728912353516, 0.09745326871052384, 2.8159808814525604, 4.265208497643471},{-2.137724630534649, 0.30516319535672665, -1.1025098226964474, 0.8565045520663261, -4.191138356924057, -4.299159228801727, -5.019451394677162, 1.7925389930605888}
};






